digraph Tree {
node [shape=box, style="filled, rounded", color="black", fontname=helvetica] ;
edge [fontname=helvetica] ;
0 [label="petal width (cm) <= 0.8\ngini = 0.66\nsamples = 97\nvalue = [49, 41, 60]\nclass = virginica", fillcolor="#f1e9fc"] ;
1 [label="gini = 0.0\nsamples = 32\nvalue = [49, 0, 0]\nclass = setosa", fillcolor="#e58139"] ;
0 -> 1 [labeldistance=2.5, labelangle=45, headlabel="True"] ;
2 [label="petal length (cm) <= 4.75\ngini = 0.48\nsamples = 65\nvalue = [0, 41, 60]\nclass = virginica", fillcolor="#d7c0f7"] ;
0 -> 2 [labeldistance=2.5, labelangle=-45, headlabel="False"] ;
3 [label="petal length (cm) <= 4.45\ngini = 0.05\nsamples = 26\nvalue = [0, 36, 1]\nclass = versicolor", fillcolor="#3ee684"] ;
2 -> 3 ;
4 [label="gini = 0.0\nsamples = 18\nvalue = [0, 26, 0]\nclass = versicolor", fillcolor="#39e581"] ;
3 -> 4 ;
5 [label="sepal length (cm) <= 5.25\ngini = 0.17\nsamples = 8\nvalue = [0, 10, 1]\nclass = versicolor", fillcolor="#4de88e"] ;
3 -> 5 ;
6 [label="gini = 0.0\nsamples = 1\nvalue = [0, 0, 1]\nclass = virginica", fillcolor="#8139e5"] ;
5 -> 6 ;
7 [label="gini = 0.0\nsamples = 7\nvalue = [0, 10, 0]\nclass = versicolor", fillcolor="#39e581"] ;
5 -> 7 ;
8 [label="petal length (cm) <= 5.15\ngini = 0.14\nsamples = 39\nvalue = [0, 5, 59]\nclass = virginica", fillcolor="#8c4ae7"] ;
2 -> 8 ;
9 [label="petal width (cm) <= 1.75\ngini = 0.32\nsamples = 16\nvalue = [0, 5, 20]\nclass = virginica", fillcolor="#a06aec"] ;
8 -> 9 ;
10 [label="petal width (cm) <= 1.55\ngini = 0.49\nsamples = 5\nvalue = [0, 5, 4]\nclass = versicolor", fillcolor="#d7fae6"] ;
9 -> 10 ;
11 [label="sepal width (cm) <= 2.95\ngini = 0.32\nsamples = 3\nvalue = [0, 1, 4]\nclass = virginica", fillcolor="#a06aec"] ;
10 -> 11 ;
12 [label="gini = 0.0\nsamples = 2\nvalue = [0, 0, 4]\nclass = virginica", fillcolor="#8139e5"] ;
11 -> 12 ;
13 [label="gini = 0.0\nsamples = 1\nvalue = [0, 1, 0]\nclass = versicolor", fillcolor="#39e581"] ;
11 -> 13 ;
14 [label="gini = 0.0\nsamples = 2\nvalue = [0, 4, 0]\nclass = versicolor", fillcolor="#39e581"] ;
10 -> 14 ;
15 [label="gini = 0.0\nsamples = 11\nvalue = [0, 0, 16]\nclass = virginica", fillcolor="#8139e5"] ;
9 -> 15 ;
16 [label="gini = 0.0\nsamples = 23\nvalue = [0, 0, 39]\nclass = virginica", fillcolor="#8139e5"] ;
8 -> 16 ;
}